{"type":"BasicNetwork","version":"1.3.0","timestamp":1509846065566,"beginTraining":0,"contextTargetOffset":[0,0,0,0],"contextTargetSize":[0,0,0,0],"endTraining":3,"hasContext":false,"inputCount":4,"layerCounts":[3,6,11,5],"layerSums":[-16.618673506998316,30.391366157644804,-330.7074287193747,-38.8349469992261,50.63007887511412,6.2272851582910045,1.2606544825945911,26.83627371130159,0,-7.318444852981752,-535.3010299450468,-9.65091703897463,4.644741334869106,1.242174599580688,11.910937551965016,10.234431183771065,-28.673454577505552,9.688647715340934,-10.346494712711618,0,0,0,0,0,0],"layerFeedCounts":[3,5,10,4],"layerContextCount":[0,0,0,0],"layerIndex":[0,3,9,20],"layerOutput":[6.061802368081543e-8,0.9999999999999367,2.374589716860434e-144,1.3620618007156385e-17,1,0.9980290862609472,0.7791387527387856,0.9999999999977862,1,0.0006627532387721269,3.3244249858490953e-233,0.00006436237057843567,0.9904794956056375,0.775942307963019,0.9999932835060182,0.9999640890069197,3.525956092550384e-13,0.9999380206750194,0.00003210409976888659,1,-0.66666667,0.27272727,-0.86440678,-1,1],"outputCount":3,"weightIndex":[0,18,73,123],"weights":[-66.05671919330345,35.954305623530075,-49.854362535155154,-40.76726823610959,10.133351578874766,18.813131703752116,-46.091908344268056,-9.092407447377148,-38.96330396866871,120.53509356076124,-10.462535328216422,-5.080742867411162,60.8220746280333,-30.93112117056199,46.94982175306533,-405.7152525680697,-13.086996864591013,-17.438122535589628,0.28192431624198566,-0.05101567981944376,1.5071705646719318,6.615129554282804,4.033837617490234,-33.19642946052273,-16.635652202199445,2.7355077693290255,0.8625821129220261,0.8013157488236833,0.45130061442015024,-3.781612574106772,-2.310097401588028,-0.8588878765397994,12.365698916327283,4.279657053576791,1.550577636482148,3.3388425859537465,0.2645364178660451,29.44108999571671,-1.9059790090108146,0.7354082603281339,0.8494246194989264,0.12154117373600656,-11.5059111204157,-1.0765226242606798,-9.480315449410131,3.156089497907714,4.247972860601481,1.8932432744895384,7.037845457338042,2.670825851843081,0.208530570390621,-7.286703436555044,-5.07581235809351,15.413348864080856,0.11403370899803787,1.5123572404248689,2.1381290798865455,0.5362566539148413,-0.10433496120998287,-3.630581505119357,-9.914984576242913,0.9343643912765837,-0.520689299076086,-1.2158183733481842,-0.06773727420950561,16.917971168044375,4.754454356704111,1.5252462219586465,1.5157736641408308,-1.2446804457144132,4.409714824854912,-1.4889862789479227,-1.0598115962856955,-0.2947948082338236,-2.4866327629264227,4.8143268517032825,1.3988638083473628,-1.2764015810990694,-3.729206375765454,3.789658796082536,-56.75838748487665,589.321424032603,1.438378229800237,0.27863873821119456,1.2049501879035356,2.1592110738178376,6.5707347302067145,-1.3566092326053543,-1.446299865245855,5.476226816868315,-1.7142593123588203,-0.19076935594784955,0.5144383019899654,0.7595442514471705,0.3530350847102229,-3.522254103633143,1.237656764169628,-0.15474842235030525,-0.14445141081934731,-0.09435652630182527,-2.7756220154220177,-7.3975886411617715,2.0435150787524305,-2.08564687189847,-0.06388968833733222,-2.596166822456527,-5.390947812177799,1.2263323736477094,30.891883262066692,-65.07964963724761,-10.561841798522538,-0.37470048871413053,0.16570139632381586,34.078186672134336,-13.262439465365263,-36.91457061089145,-3.518105333235569,0.5971574025415594,-0.06547759999155948,-2.6134602991485125,6.306166843559278,3.238682362957605,-0.9876088152759813],"biasActivation":[0,1,1,1],"activationFunctions":["ActivationSigmoid","ActivationSigmoid","ActivationSigmoid","ActivationLinear"]}